digraph Tree {
node [shape=box, style="filled", color="black"] ;
0 [label="rate <= 2.5\ngini = 0.4223\nsamples = 300\nvalue = [225, 21, 6, 7, 21, 20]", fillcolor="#e58139ba"] ;
1 [label="age <= 47.0\ngini = 0.6598\nsamples = 45\nvalue = [23, 3, 1, 2, 5, 11]", fillcolor="#e581395a"] ;
0 -> 1 [labeldistance=2.5, labelangle=45, headlabel="True"] ;
2 [label="age <= 29.5\ngini = 0.7119\nsamples = 38\nvalue = [16, 3, 1, 2, 5, 11]", fillcolor="#e581392f"] ;
1 -> 2 ;
3 [label="religious <= 1.5\ngini = 0.5\nsamples = 16\nvalue = [11, 2, 0, 1, 1, 1]", fillcolor="#e58139a4"] ;
2 -> 3 ;
4 [label="gini = 0.5\nsamples = 2\nvalue = [0, 0, 0, 1, 0, 1]", fillcolor="#399de500"] ;
3 -> 4 ;
5 [label="gini = 0.3571\nsamples = 14\nvalue = [11, 2, 0, 0, 1, 0]", fillcolor="#e58139bf"] ;
3 -> 5 ;
6 [label="ym <= 8.5\ngini = 0.7025\nsamples = 22\nvalue = [5, 1, 1, 1, 4, 10]", fillcolor="#e5399d4b"] ;
2 -> 6 ;
7 [label="gini = 0.0\nsamples = 2\nvalue = [0, 0, 0, 0, 2, 0]", fillcolor="#8139e5ff"] ;
6 -> 7 ;
8 [label="gini = 0.67\nsamples = 20\nvalue = [5, 1, 1, 1, 2, 10]", fillcolor="#e5399d55"] ;
6 -> 8 ;
9 [label="gini = 0.0\nsamples = 7\nvalue = [7, 0, 0, 0, 0, 0]", fillcolor="#e58139ff"] ;
1 -> 9 ;
10 [label="religious <= 1.5\ngini = 0.3616\nsamples = 255\nvalue = [202, 18, 5, 5, 16, 9]", fillcolor="#e58139c6"] ;
0 -> 10 [labeldistance=2.5, labelangle=-45, headlabel="False"] ;
11 [label="rate <= 3.5\ngini = 0.6259\nsamples = 21\nvalue = [12, 2, 2, 0, 3, 2]", fillcolor="#e581397f"] ;
10 -> 11 ;
12 [label="occupation <= 4.0\ngini = 0.4444\nsamples = 3\nvalue = [0, 0, 0, 0, 2, 1]", fillcolor="#8139e57f"] ;
11 -> 12 ;
13 [label="gini = 0.0\nsamples = 1\nvalue = [0, 0, 0, 0, 0, 1]", fillcolor="#e5399dff"] ;
12 -> 13 ;
14 [label="gini = 0.0\nsamples = 2\nvalue = [0, 0, 0, 0, 2, 0]", fillcolor="#8139e5ff"] ;
12 -> 14 ;
15 [label="age <= 44.5\ngini = 0.5247\nsamples = 18\nvalue = [12, 2, 2, 0, 1, 1]", fillcolor="#e581399f"] ;
11 -> 15 ;
16 [label="gini = 0.4141\nsamples = 16\nvalue = [12, 2, 1, 0, 1, 0]", fillcolor="#e58139b6"] ;
15 -> 16 ;
17 [label="gini = 0.5\nsamples = 2\nvalue = [0, 0, 1, 0, 0, 1]", fillcolor="#39e58100"] ;
15 -> 17 ;
18 [label="sex <= 0.5\ngini = 0.3314\nsamples = 234\nvalue = [190, 16, 3, 5, 13, 7]", fillcolor="#e58139cc"] ;
10 -> 18 ;
19 [label="occupation <= 1.5\ngini = 0.4325\nsamples = 116\nvalue = [86, 11, 2, 3, 9, 5]", fillcolor="#e58139b6"] ;
18 -> 19 ;
20 [label="gini = 0.0\nsamples = 1\nvalue = [0, 0, 0, 0, 1, 0]", fillcolor="#8139e5ff"] ;
19 -> 20 ;
21 [label="gini = 0.4239\nsamples = 115\nvalue = [86, 11, 2, 3, 8, 5]", fillcolor="#e58139b8"] ;
19 -> 21 ;
22 [label="child <= 0.5\ngini = 0.2196\nsamples = 118\nvalue = [104, 5, 1, 2, 4, 2]", fillcolor="#e58139df"] ;
18 -> 22 ;
23 [label="gini = 0.0898\nsamples = 43\nvalue = [41, 0, 0, 0, 1, 1]", fillcolor="#e58139f3"] ;
22 -> 23 ;
24 [label="gini = 0.2873\nsamples = 75\nvalue = [63, 5, 1, 2, 3, 1]", fillcolor="#e58139d3"] ;
22 -> 24 ;
}